1083635 300
s 0.30883414 0.3417081 0.17624436 -0.18298061 -0.14040422 0.19680278 -0.19600548 0.11257048 0.24811485 0.14623791 0.087831415 -0.29977265 0.47460958 0.1549725 0.19399151 0.02659215 -0.03007248 -0.043364376 -0.13195215 -0.17271467 0.10210518 -0.10038343 0.056354966 -0.3284354 0.123515375 0.063282534 0.20981084 0.022976069 -0.116072595 -0.029010411 0.0495215 -0.25476387 -0.104976155 0.14056155 -0.0064502363 0.20623161 -0.0466687 -0.1577076 0.18278527 0.15531981 0.24059266 -0.08960566 -0.30594683 -0.10818794 0.030560082 -0.16898982 -0.1610897 -0.28360957 0.0019557963 -0.28649202 -0.11911136 -0.0022030924 -0.0061916756 -0.091596 -0.05972236 0.22018173 0.0922466 0.36714956 0.49042338 0.09808659 0.0018290854 0.16059427 -0.021516562 -0.07720275 0.30125552 0.1165576 0.16791219 -0.16312414 0.23555072 0.009600193 -0.052007094 -0.18561758 -0.15168102 -0.24236596 0.14649753 0.061267037 0.068700604 0.45295313 0.18392132 0.12358926 0.00026434887 0.059043083 0.17861617 -0.2106363 0.17483258 -0.02102162 -0.16344033 -0.31072137 -0.12810217 -0.037412334 0.28479734 -0.031775687 0.21757188 0.08945704 0.03311921 -0.11323278 0.0011157468 0.0024604474 -0.23403542 0.21646412 0.07797427 0.038340874 0.0636412 -0.17868198 0.24530387 0.05512767 0.18008481 -0.19460285 0.00646752 -0.01564512 0.026693476 -0.116753824 -0.055506732 0.07890478 0.24487779 -0.24384153 -0.05576048 -0.14645663 0.13205859 -0.039433453 -0.07540114 -0.037168838 0.111313336 -0.08181515 0.20607093 0.22119746 0.06279519 0.20408843 -0.06356187 -0.0048021614 0.05763345 -0.33952397 0.34169507 -0.18521672 -0.103265375 0.041716773 0.120170996 0.08844402 -0.15058546 -0.0067455177 -0.013865367 0.030035235 0.109012276 0.27476344 0.018540792 -0.3446314 -0.03100047 -0.14253119 0.03580404 0.121839866 -0.14927813 -0.023288788 0.06884323 -0.26957646 -0.14940898 -0.038359717 -0.13685186 -0.02035757 -0.01813132 -0.09112223 0.06554983 -0.09926289 -0.32466134 0.06700117 0.14416392 0.26450488 -0.1275532 0.22374505 0.2918002 0.050898604 0.11585784 -0.26980263 0.035424 0.16625744 -0.21058863 -0.076072335 -0.2119734 0.024857013 -0.06786105 -0.038921505 -0.13973083 0.012719988 -0.12807444 0.022681728 0.2896718 -0.13812755 -0.23746121 -0.09117115 0.2520495 -0.04289846 -0.20736013 0.014301382 0.006151831 0.06908827 -0.09366884 -0.104280576 0.0736848 0.057487164 0.066670194 -0.25032184 -0.035779577 -0.11059203 -0.1584614 0.10120068 0.250038 0.042778634 -0.13076429 -0.09766124 0.13674442 0.122571476 -0.25312877 -0.039355036 -0.03422904 0.07585665 -0.11755063 -0.31801477 -0.086507134 0.070310906 -0.08575372 -0.19387579 0.1400473 0.0076524992 -0.2588606 -0.19390586 -0.18223913 0.350069 0.054258734 0.24916857 -0.10792281 0.23544009 0.06562486 -0.14346842 -0.005260536 0.18920672 0.037311427 -0.2058574 -0.20371756 0.03447835 -0.02157598 -0.20675814 0.2555142 -0.097710565 0.25411868 -0.08534703 0.07980637 -0.17900474 -0.049516726 -0.17581354 0.12805097 -0.042649895 -0.15292147 0.2029993 -0.10974764 -0.051705193 -0.22084942 -0.0810228 0.071343146 -0.020043222 0.07171101 -0.013079684 -0.16223857 0.21031004 0.253594 -0.16834897 0.24219401 0.030761251 0.119905315 0.039883845 0.31625298 -0.15129541 -0.17687342 -0.02261973 0.18402347 0.002660358 0.21651846 -0.017369851 -0.13348587 0.31742033 -0.0011590556 -0.08065723 -0.16044256 0.095359266 -0.043824464 0.3414353 -0.037180368 0.086453795 0.03437205 -0.011134931 0.028796736 -0.12566037 -0.022795595 0.07214349 -0.24906889 -0.20179965 0.018453177 -0.11569267 -0.07455964 -0.13491002 0.0237102 -0.10121164
wa 0.1853369 0.32119474 0.17871802 -0.16360682 -0.13405095 0.14960673 -0.10029547 0.10886014 0.29070732 0.13560142 0.17153855 -0.40951234 0.2794225 0.19960313 0.1792423 0.13072953 -0.112671696 0.031950213 -0.088946916 -0.057433322 0.0642051 -0.044971175 0.010650209 -0.2836778 0.086293906 0.00057935267 0.06717527 0.12007797 -0.193481 -0.10114649 -0.03763155 -0.3607519 -0.068489484 0.25200248 0.085053116 0.17264076 0.0444719 -0.23501591 0.16025645 0.26615268 0.23516986 -0.14130102 -0.32754815 -0.10247278 0.014720467 -0.053783644 -0.12297346 -0.31899703 0.04151027 -0.4147251 -0.084250204 0.07717388 0.0365049 -0.1629027 0.05134768 0.14612933 0.040777236 0.16943029 0.39867052 0.23759705 -0.0157617 0.21602441 -0.04029587 0.01922579 0.24548054 0.20067321 0.16500781 -0.08146148 0.23096575 0.032476187 -0.10854946 -0.027355952 -0.17710565 -0.3005265 0.118140936 0.08000205 0.07418011 0.4416828 0.14330791 0.07480584 -0.04438606 0.01969958 0.16371073 -0.21456009 0.08688548 -0.057348747 -0.16373613 -0.35096648 0.012037072 0.09937829 0.3129722 -0.04774738 0.14816064 -0.03153376 0.0150090875 -0.12312387 0.007925486 -0.025348239 -0.19115907 0.25042346 0.0448358 0.08430922 0.04219043 -0.22966208 0.3185421 0.049498864 0.26131722 -0.3059252 -0.021205831 -0.030565565 -0.041571278 -0.08118163 -0.1507985 0.103367046 0.18629505 -0.09000702 -0.018697847 0.1119898 0.20983525 -0.05658231 -0.17146279 -0.1264443 0.20113058 -0.017257646 0.36019418 0.3258903 0.05091269 0.22131066 0.06546252 -0.02180811 0.11907653 -0.35050213 0.31314394 -0.33243546 -0.07670624 -0.074223556 0.11099974 0.14480998 -0.23910388 -0.00688561 0.0062264097 0.033437178 0.031990297 0.19265103 -0.045100573 -0.35231313 -0.03686699 0.011571374 0.032387123 0.22505744 -0.096683554 0.12229493 0.13636136 -0.27939218 -0.06282982 0.014200044 -0.14048295 -0.07682349 -0.10798244 -0.13702308 0.2525496 0.08776103 -0.34640077 0.02771217 0.028930113 0.22967094 -0.15619779 0.2737392 0.32430094 -0.0017147546 0.15173638 -0.1825653 0.13098063 0.1305022 -0.2663973 -0.07528681 -0.1606233 0.0995738 -0.02113141 -0.08956158 -0.22439583 -0.02217362 -0.0023353384 -0.055628583 0.054624364 -0.015897978 -0.29324582 -0.20080917 0.2065329 -0.119732656 -0.29320472 0.009462969 -0.017545551 0.11396449 -0.00084482663 -0.08972969 0.04488503 0.12135109 0.10753053 -0.16247897 -0.000675226 -0.040305078 -0.018754657 0.18487114 0.20868252 0.10842793 -0.1502497 -0.10837486 0.08271131 0.10818281 -0.31425098 0.07092312 -0.06190673 0.0076263095 -0.24043645 -0.33325648 -0.05087098 0.13492678 -0.084902875 -0.046012245 0.21335508 0.007994329 -0.21128339 -0.0755984 -0.23920499 0.31925744 0.10164067 0.19115582 0.087675765 0.18253927 0.0016855934 -0.20296656 0.030738497 0.11884642 0.07745748 -0.18475826 0.0019194664 0.050254893 -0.10256459 -0.115842864 0.38009655 -0.024640456 0.14533919 -0.059902545 0.35072118 -0.099613465 0.07839476 -0.19661936 0.12810656 0.029411474 -0.12767774 0.20800075 -0.050848164 -0.048484605 -0.2432394 -0.16527404 0.05430122 -0.08534254 0.079302646 -0.034564864 -0.20145331 0.15881334 0.4376946 -0.2064376 0.23575957 0.09892898 0.04835288 0.03608334 0.3390318 -0.18664478 -0.17427519 -0.018747566 0.2210318 0.12262007 0.15422152 -0.00028954403 -0.21241215 0.31357867 0.13009596 -0.12429379 -0.22694437 0.11585421 -0.09311607 0.32465428 0.007101534 0.18257011 0.08644304 -0.08207547 0.027447956 -0.033700995 -0.10054037 0.06017253 -0.30118027 -0.3978029 0.055255275 -0.07074879 0.029065765 -0.035497565 -0.056040492 0.0056282124
thi 0.31998578 0.38171753 0.25048888 -0.12464595 -0.06274464 0.26982182 -0.15498938 0.20315556 0.29154775 0.121620715 0.1315847 -0.34797794 0.33337343 0.32984316 0.25988805 -0.039018024 -0.1366607 0.06598101 -0.084994875 -0.02509936 0.15299731 -0.07312837 -0.034016516 -0.30538613 0.12457712 0.030295117 0.17555007 -0.06145536 -0.1904901 -0.18081546 0.010501148 -0.3105284 -0.16268112 0.17839259 -0.037143152 0.1827463 -0.042811282 -0.18615285 0.17727831 0.19535735 0.20363472 -0.01693636 -0.3532288 -0.07128289 -0.093859404 -0.014094139 -0.09375161 -0.2044719 -0.022900825 -0.22050516 -0.08252025 0.06824867 -0.061932195 -0.17579508 0.06558859 0.17380074 0.10315707 0.13454546 0.49889302 0.082083896 0.058568116 0.18284428 0.0044738296 -0.19399329 0.4218004 0.29629558 0.08910232 -0.19032551 0.27030662 0.031556938 -0.15331961 -0.16519748 -0.20902628 -0.22187275 0.050240915 0.13729152 0.15722796 0.47946241 0.20087337 0.13248594 -0.11662075 0.1012231 0.22996116 -0.30184948 0.36385822 -0.013823574 -0.358465 -0.34373173 0.07122058 0.13855998 0.27245617 0.009285561 0.183341 0.071954854 -0.09343019 -0.09125885 -0.03876519 -0.10220014 -0.17011563 0.23890825 0.053642634 0.053658675 0.09449707 -0.15487288 0.29920116 0.08947103 0.22183944 -0.31829488 0.038739525 -0.026923208 -0.046861 -0.08128307 -0.023484018 0.26042235 0.21716075 -0.20644782 -0.11145665 -0.11300163 0.14747071 0.046824254 -0.09316133 -0.032433465 0.25616303 -0.095626295 0.29908368 0.26861405 0.19597305 0.33395854 -0.08081783 -0.13616446 0.015853351 -0.33793947 0.34504133 -0.34985435 -0.035078052 0.018169047 0.05167463 0.09458701 -0.09087959 -0.13113245 -0.01645032 -0.03464511 0.056274388 0.35425314 -0.13465638 -0.4821844 -0.15671521 -0.14899948 0.06797333 0.16328636 -0.011617002 0.058975298 0.123327576 -0.31984913 -0.13299514 0.023513988 -0.07140315 -0.1409637 -0.03177473 -0.19438635 0.15209255 0.06518484 -0.34039912 0.18003143 0.22967398 0.17733216 -0.089839436 0.14137827 0.23599058 0.084907845 0.13025399 -0.2943142 0.06769504 0.1818074 -0.256403 -0.0051362435 -0.1603434 0.12075608 -0.023175793 0.035978172 -0.31400156 -0.014399745 -0.13198352 0.016163055 0.18733007 -0.11890865 -0.14779717 -0.043792583 0.2886291 -0.08159878 -0.18427233 -0.01574709 0.06566498 -0.06028398 -0.112050876 -0.12765668 0.0109615335 0.21022612 -0.014008251 -0.26588982 -0.07009312 -0.12740417 -0.13599627 0.118861385 0.09688464 0.0942407 -0.079053976 -0.30380312 0.17550103 0.14302573 -0.103580154 -0.10260233 -0.18702078 0.13552517 -0.11052289 -0.37046555 -0.048744496 0.041884378 -0.029271424 -0.25737688 0.3070754 -0.049037963 -0.24311845 -0.019359335 -0.2202453 0.2863929 0.08991193 0.15521242 -0.0041691326 0.21377373 0.105085135 -0.08410576 0.03434935 0.13300681 0.066294536 -0.20269729 -0.17323591 0.12940906 -0.022901058 -0.06577403 0.39105132 -0.01193291 0.17581059 -0.014222626 0.14042857 -0.043178003 -0.030982465 -0.2268337 0.22197701 0.13474286 -0.25546008 0.18034773 -0.00681348 0.13916622 -0.3136678 -0.1263824 -0.0547538 -0.052993618 0.16732514 -0.097697556 -0.13294075 0.13596915 0.2929804 -0.20619577 0.13700226 -0.0068589267 -0.029687174 -0.058996238 0.30941176 -0.11501707 -0.32983315 0.053549375 0.094973944 -0.02981643 0.20904079 0.17137687 -0.20621021 0.3761954 -0.008247668 -0.15526865 -0.28153357 0.04625215 -0.054843746 0.37234586 -0.15193501 0.09224802 0.095779985 -0.11522659 -0.07295093 -0.032364324 -0.007666287 0.2555851 -0.3393676 -0.44291 0.08258484 -0.10658849 0.033113733 -0.052875157 0.037689377 0.005790931
said 0.211815 0.3961291 0.18296629 -0.21255302 -0.09362265 0.1523046 -0.116618656 0.14200573 0.421354 0.11854869 0.05919914 -0.38217112 0.26656303 0.123012945 0.28562054 0.04214518 -0.15572728 -0.035744432 -0.07065053 -0.21312003 -0.0064799176 -0.14945756 -0.07198396 -0.30660704 0.0030723545 0.054019343 -0.059559196 0.09518075 -0.21524324 -0.054679234 -0.023008147 -0.36297315 -0.11228977 0.1989809 0.0014239058 0.3054498 -0.014526952 -0.14169921 0.22951315 0.42508787 0.2922371 0.0019673787 -0.4412108 -0.10393122 0.072350435 -0.0737106 -0.03151276 -0.33649802 0.060708724 -0.2647469 -0.11984478 0.0920636 0.10320703 -0.11393204 -0.06305091 0.13154636 0.026359923 0.2707208 0.42139816 0.22727457 -0.07340886 0.23265621 0.10179519 -0.03866319 0.28742072 0.093469165 0.39276278 0.02241838 0.1731961 -0.06984749 -0.11284092 -0.094798714 -0.16410261 -0.21657701 0.2131462 -0.07319694 0.20617661 0.38203418 -0.0006715104 0.123230286 -0.13307925 -0.033238452 0.053623226 -0.20248355 0.17325515 -0.016814018 -0.12541866 -0.28872976 -0.09689704 0.22126658 0.21434347 -0.060032148 0.1362924 -0.0705256 0.025337784 -0.18126787 0.020053882 0.19440316 -0.17485577 0.2781353 -0.105938815 0.1613702 0.04599008 -0.24604315 0.40059698 0.13169508 0.32125923 -0.2986989 -0.18608251 0.063959174 -0.15495756 -0.09722613 -0.15541506 0.07368614 0.26672715 -0.17994694 -0.1182642 0.07502737 0.15522519 -0.00056443637 0.033722453 -0.15725726 0.099304765 -0.04335324 0.32224488 0.38495633 -0.10793202 0.2601052 0.06440535 -0.0771151 -0.045683935 -0.30024427 0.3376497 -0.17091176 -0.010688016 0.036474694 0.096294045 0.17716093 -0.1362217 0.101081915 -0.13713355 0.06765724 0.029370785 0.24743773 -0.12871467 -0.46752778 0.01417501 0.032100268 0.020961354 0.20755996 -0.1884815 0.19048257 0.27239436 -0.08594372 0.0682106 0.2178646 -0.07081763 -0.101187095 -0.07548782 -0.060925752 0.1253123 -0.022833541 -0.2573712 0.21977982 -0.085284986 0.27517465 -0.03435636 0.19627684 0.24111992 -0.10331586 0.05769143 -0.22720422 0.22441344 0.081179984 -0.18751702 -0.056776833 -0.14826773 0.12739637 0.12517723 0.059649426 -0.30046305 0.07740432 -0.016011426 -0.16122617 0.012156462 -0.1346733 -0.31889048 -0.22289453 0.12874806 -0.020748269 -0.34114024 -0.03783458 -0.04166111 0.19439499 -0.069322705 -0.10348799 0.016396577 0.09182315 0.01699921 -0.26541194 0.05219488 -0.19088255 -0.067468695 0.18689144 0.22664124 0.06004575 0.0502518 -0.11665556 -0.03509898 0.1456778 -0.3704619 0.021933654 0.14461997 -0.112734705 -0.21889155 -0.48202622 -0.16114205 0.14175564 -0.13336667 -0.25538045 0.18899664 -0.036306668 -0.21258731 -0.22699314 -0.27594596 0.22013675 0.10140556 0.2555436 0.045830566 0.1479435 -0.034704294 -0.22974487 0.09173245 0.2533706 -0.041460115 -0.18181041 -0.023572467 0.012133528 -0.24075049 -0.2219155 0.23819606 -0.059139367 0.12874366 -0.052936383 0.22539452 -0.103963666 0.055682994 -0.0954947 0.17141658 -0.06710352 0.048243266 0.17567961 -0.036222056 -0.12967184 -0.14754675 -0.20397295 0.14385144 -0.162482 -0.051314946 0.03176883 -0.1849203 0.25911307 0.4070515 -0.10472866 0.2722819 0.12183066 0.1732075 0.042643268 0.49609226 -0.105270945 -0.010429783 0.037980437 0.21644218 0.10629667 0.017109891 0.039839376 -0.16737841 0.32846385 0.09089326 -0.017107418 -0.2536012 0.005453359 0.014456981 0.16855395 0.12078339 0.10637178 -0.03230256 -0.15504578 0.27184695 0.04641949 -0.05757692 0.049230088 -0.24081953 -0.34118822 -0.033866923 0.07016638 0.021306142 0.1365493 0.018889686 -0.04546299
ha 0.29695806 0.4512451 0.20461206 -0.059007768 -0.07887063 0.173629 -0.18914413 0.17100373 0.29509756 0.16142824 0.036068246 -0.3382907 0.37180132 0.25551036 0.28107014 -0.05717323 -0.13136496 0.044717114 -0.0840205 -0.103388704 0.18074147 -0.048524935 0.07153272 -0.32575566 0.08786051 0.037729137 0.1249627 0.0033883224 -0.14337113 -0.030014047 0.024638453 -0.24516001 -0.13321598 0.22331397 -0.08236891 0.23452021 -0.04553483 -0.18186042 0.16298434 0.2494987 0.27883986 -0.019613389 -0.45156524 -0.06362685 -0.08687091 -0.06966306 -0.19393866 -0.23626523 -0.03809659 -0.25321177 -0.121879846 0.06917466 -0.042457752 -0.13820693 0.034338415 0.18117873 0.03343346 0.29359907 0.43456638 0.18744513 0.06941187 0.1670405 -0.070104286 -0.055295695 0.30534938 0.23521511 0.15666068 -0.09576113 0.22632638 0.043442883 -0.15988968 -0.124890976 -0.24078007 -0.11190116 0.14145228 0.05674307 0.16672514 0.47185412 0.11891452 0.07318759 -0.11029636 0.01098701 0.19369556 -0.25887898 0.20732878 -0.08317119 -0.19708419 -0.3617963 -0.015133483 -0.010744451 0.30789724 0.002112872 0.2563094 -0.053345278 -0.04542663 -0.13675727 0.06814527 -0.090269156 -0.14347902 0.12690635 0.0626283 -0.056622542 0.04695746 -0.23455316 0.3243939 0.046743684 0.20095997 -0.1719931 0.08755942 -0.054008063 -0.039428294 -0.12653469 -0.014215839 0.16616695 0.29399866 -0.14335664 -0.10319564 -0.0507463 0.1367514 -0.16911308 0.011957605 -0.019493403 0.32875046 -0.017678859 0.2143252 0.2899826 0.12348599 0.1893371 0.0143528655 -0.063268974 0.054090075 -0.25153857 0.33290353 -0.23638989 -0.080019146 -0.08053613 0.030285424 0.0075221793 -0.14853016 -0.04306291 -0.17546219 -0.037882276 0.059688054 0.31134665 -0.08945424 -0.43535402 -0.1737017 -0.12849717 0.03682359 0.10728572 -0.037931178 0.04216747 0.13108201 -0.2973335 -0.1459914 -0.06877152 -0.11363369 -0.118356526 -0.13881052 -0.049843464 0.12292693 -0.12855242 -0.40037525 0.1402548 0.13273993 0.25464332 -0.08416036 0.15282503 0.14193915 0.03413653 0.012246085 -0.18397552 0.08607752 0.07999272 -0.2614271 -0.11049773 -0.20350434 0.19163854 -0.036371063 -0.0060401936 -0.23753361 -0.010953898 -0.108712584 0.07484681 0.21218972 -0.09237712 -0.09779883 -0.002585945 0.23106001 -0.06545317 -0.15681337 -0.05305036 0.038898677 -0.087765865 -0.045871753 -0.12190527 0.01905694 0.13042706 -0.03247193 -0.24186166 0.006746433 -0.10609457 -0.123508886 0.192151 0.22679967 0.10204545 -0.09354699 -0.17399605 0.10567247 0.096179694 -0.15142553 0.040000483 -0.059747938 0.03240958 -0.12790242 -0.25121522 -0.12661834 -0.03231076 -0.07541615 -0.22275642 0.21685782 -0.103602655 -0.20589522 -0.20600408 -0.23599494 0.28229502 0.12086343 0.2702421 -0.05500492 0.11143628 0.073638804 -0.050728768 -0.034213386 0.19749798 -0.0139358835 -0.29377976 -0.18887828 0.05102958 -0.042098664 -0.14985727 0.33019343 -0.007914554 0.18869802 -0.026489463 0.21585153 -0.1782409 0.0040951283 -0.18665345 0.09532306 0.026372379 -0.21429943 0.254474 -0.095814504 0.0033647132 -0.25809035 -0.1980518 0.18735068 -0.121069975 0.100456595 -0.0665277 -0.0350514 0.1133994 0.32245198 -0.19456568 0.23175308 0.009488209 -0.02434508 0.03307178 0.32527906 -0.07743003 -0.33608216 0.01142903 0.17807718 -0.083469465 0.11924452 0.11497071 -0.046126224 0.3901242 -0.05020023 -0.12400673 -0.18475856 0.1593501 -0.06797366 0.27702153 -0.031213574 0.12607701 0.068284616 -0.11618684 0.06176164 -0.025163002 -0.030688673 0.10028065 -0.39368764 -0.25645143 0.15130699 -0.055821706 -0.127754 -0.04641365 -0.07438936 -0.07591203
year 0.3738455 0.40907547 0.035851795 -0.04571927 -0.16503803 0.18614708 -0.20341231 0.13523436 0.391387 0.14165995 0.14816383 -0.32164305 0.31765902 0.17917383 0.20830283 0.033245645 -0.18811868 -0.0059954617 0.055900462 -0.10835485 0.22657941 -0.033858363 0.064499475 -0.23201472 0.12465212 0.092251055 -0.060675904 0.12642747 -0.051265847 -0.15514842 0.010576513 -0.23129593 -0.0015434676 0.39686546 -0.10750397 0.07143739 -0.013239981 -0.057224717 0.16512011 0.1857379 0.17980655 -0.15618384 -0.4518913 -0.040432483 -0.0064215306 -0.050696462 -0.09992737 -0.2652138 0.04617864 -0.19174819 -0.14802441 -0.038432512 0.07393587 -0.28704628 -0.028282434 0.19273327 0.02459506 0.34913674 0.41927376 0.22274774 0.04163184 0.15616722 -0.100007236 -0.018233515 0.2695609 0.232916 0.22794063 -0.15174228 0.24035348 -0.08528053 -0.22062851 0.018955484 -0.3256236 -0.30859482 0.02710213 -0.053724527 0.24091871 0.16461892 -0.0064538615 0.19961508 -0.19937602 0.036138814 0.2759818 -0.22648704 0.25116974 -0.023178136 -0.17195962 -0.44253525 0.048964977 0.14936768 0.21836786 0.016244909 0.24289842 0.03768492 -0.07513616 -0.17082524 0.054962773 -0.059438813 -0.13010602 0.18270823 -0.12310396 -0.021105949 -0.0027391699 -0.23328546 0.30785188 0.19665779 0.27191418 -0.24198017 0.047878247 0.019074835 -0.040021073 -0.10866795 -0.13958965 -0.04499857 0.30837986 -0.072405845 -0.074484 0.007840406 0.17999849 -0.19661242 -0.13417669 -0.058160577 0.16701816 -0.2583334 0.3349775 0.29981303 0.13220663 0.13807431 -0.09782464 0.017500436 0.041269545 -0.36246642 0.3783799 -0.3382382 -0.07118522 -0.034555312 0.10364268 0.03327224 -0.28505507 -0.049547214 -0.12464479 -0.109191425 0.13381037 0.15499696 0.04148579 -0.45395455 -0.17147261 -0.056621306 0.17671463 0.16812626 -0.053880382 0.16013394 0.080522135 -0.15823846 0.07843374 -0.04363119 -0.13619302 -0.22351915 -0.04886052 -0.06647509 0.16095053 0.04084307 -0.2374246 0.11869782 0.16025285 0.32976452 -0.014009861 0.031159708 0.1257786 -0.052744232 0.16370185 -0.21653877 -0.06926464 0.087796226 -0.14447209 -0.20028187 -0.25955012 0.07022514 0.12841853 0.024155203 -0.3322239 -0.061592616 -0.010564811 0.075739056 0.08453328 -0.12349523 -0.25056842 -0.121675186 0.2379556 -0.13393837 -0.2418119 -0.21398707 0.08860283 0.04592824 0.033036392 -0.25544134 -0.002879964 0.1001101 0.063946165 -0.067302994 0.008276562 -0.055937152 -0.13050406 0.15394923 0.2580993 0.13955794 -0.13839078 -0.11825402 0.19505247 0.06021598 -0.2918827 -0.16386513 0.001538148 0.0540651 -0.23124948 -0.36687273 -0.025698496 0.17674299 -0.2692129 -0.22784656 0.08428934 -0.049949512 -0.24334753 -0.22255771 -0.3598661 0.3265935 0.13717392 0.19746953 -0.002340487 0.2197575 0.09205983 -0.10973503 -0.23592794 0.18714029 0.09253709 -0.24067919 0.022891687 0.01912222 -0.12556301 -0.16753617 0.3714445 -0.014612234 0.16610898 -0.11868478 0.22277904 -0.29706833 0.047966845 -0.14143845 0.20097724 -0.0745581 -0.14348654 0.19042403 -0.028543422 0.004198768 -0.14672975 -0.018557124 0.17352107 -0.15789601 0.070955105 0.04490542 -0.0019786728 0.11643734 0.22733112 -0.1971506 0.25343242 0.02511331 0.04562324 0.09346892 0.28687534 -0.03647643 -0.28027406 0.12944762 0.23188704 0.032273788 0.2725705 -0.012161842 -0.064917855 0.26393104 0.021516724 -0.12983352 -0.24352984 0.2157936 0.029008238 0.35040882 -0.14695275 0.008791783 0.079890385 -0.07965119 0.07951591 0.065830655 -0.07962957 0.107848406 -0.4090013 -0.32060084 0.07505953 -0.049176764 -0.06791529 0.14354093 -0.1512213 -0.0384634
time 0.33959135 0.3549599 0.12285658 -0.04261397 -0.039534222 0.2081566 -0.27142528 0.0010052859 0.4028326 0.06636756 0.1641192 -0.29829848 0.42666382 0.22873884 0.24376974 0.059964776 0.019113729 -0.015879354 -0.02494265 -0.15801786 0.14308919 -0.12796684 -0.05219832 -0.31601667 -0.16186275 0.16287565 -0.10416156 -0.14596587 -0.07346838 -0.11787978 0.09648191 -0.32153112 -0.16862261 0.13788487 -0.007873759 0.043209773 -0.07159706 -0.119979076 0.19272909 0.068125166 0.17427522 -0.17183757 -0.14301716 -0.2049565 0.098639466 -0.041914713 -0.23105444 -0.0963609 -0.030745836 -0.13966906 -0.1960159 0.013100751 0.038397968 -0.07931388 -0.1114174 0.16548721 0.25960395 0.20187002 0.48202863 0.020513501 -0.049043193 0.34092718 -0.008222714 -0.06944179 0.089130804 0.34655976 0.13457105 -0.16550918 0.0037152953 -0.06548192 -0.20647736 -0.19831641 -0.20647427 -0.14365569 0.18170388 0.035441022 0.08436004 0.4114875 0.11269479 0.19813386 -0.22528483 0.10486468 0.10435324 -0.36219773 0.17188863 0.075182095 -0.19350733 -0.428061 0.014060469 0.09872818 0.04306664 0.09350514 0.1953445 -0.048666067 0.120049745 -0.22652644 -0.032200806 -0.14814295 -0.21370852 0.044363834 0.024952037 0.2044381 0.30763322 -0.31273448 0.2999136 -0.10801357 0.022163693 0.004620734 0.0521644 -0.070453584 0.09973442 -0.16977885 -0.007995836 0.02108277 0.46977884 -0.12852044 -0.033766184 -0.07629469 0.14253196 0.099288814 -0.24816087 -0.029495232 0.37802586 -0.15931314 0.2192121 0.22948892 0.03606977 0.29487765 -0.045671698 0.016650345 0.18085147 -0.32643673 0.14362054 -0.2513703 -0.106507525 -0.08787909 0.035994686 -0.049138285 -0.3737861 -0.094337426 -0.07427016 -0.101766326 0.0900011 0.22470021 0.038936663 -0.24145316 -0.006998069 -0.21733084 0.17258282 0.21686885 -0.10382106 0.1715118 0.028178256 -0.22027029 -0.061479356 0.059800792 -0.09730211 -0.121322125 -0.09311003 0.018592652 0.09833172 -0.056055486 -0.26784685 0.21978939 0.20416068 0.24696238 -0.03654571 0.2469677 0.26810938 -0.16202503 0.21772124 -0.24618566 -0.07292806 0.17092748 -0.31803897 -0.120571956 -0.048968963 0.07939813 0.05412914 0.037886746 -0.22558147 -0.10681703 -0.05336122 -0.15972064 0.18310708 -0.2529851 -0.23030227 -0.067357115 0.30788195 -0.09616069 -0.41544163 -0.24724628 0.14337946 -0.029988116 0.0242461 -0.06577784 -0.0043943515 0.09383449 0.07977352 -0.050929405 -0.057353523 -0.37834662 -0.2756932 0.14269471 0.015351322 -0.14240086 -0.0034480556 -0.099916644 0.06384883 0.18598391 -0.22468908 -0.26294076 -0.2578506 0.15105516 -0.039503492 -0.35895702 -0.055813834 0.10535573 -0.06352837 -0.33047438 0.14419411 0.06516425 -0.3254072 -0.1124611 -0.3336435 0.3699725 0.1222443 0.1547549 0.047994528 0.2180636 0.10872133 -0.13143153 -0.109120145 0.16253014 0.17883061 -0.0749138 -0.088709176 -0.04445009 -0.09624521 -0.12797706 0.33922333 0.005618208 0.11606153 0.004424991 0.14455555 -0.17743911 -0.21240033 -0.12658896 0.40069035 -0.060783852 0.15011306 0.25128502 -0.10758991 -0.08707368 -0.21887088 -0.08027103 -0.08417063 -0.17338651 0.25230202 0.01146759 -0.0831078 0.122694135 0.37464485 -0.10633126 0.321641 0.012913049 -0.0274315 -0.021622228 0.33535996 -0.19309288 -0.2952777 0.019509263 0.42325675 -0.0057932446 0.16747472 0.002616482 -0.21167587 0.38690895 0.07826971 0.06711791 -0.1959659 0.1437304 -0.2614937 0.264456 -0.09157029 0.069701664 0.092152774 -0.2583429 0.0683066 0.07527757 -0.1586121 0.16008246 -0.39198297 -0.28421372 0.067069024 -0.28068632 0.10187258 0.043791037 -0.26917562 0.11285231
hi 0.30616418 0.39515465 0.20897932 -0.13367987 -0.24502328 0.30238077 0.012913062 0.12076563 0.40069896 0.18614107 0.15020135 -0.31396735 0.33994052 0.17723113 0.24016683 0.20262347 0.012479677 0.17830668 -0.021358818 -0.15562399 -0.16491652 -0.02553163 0.012872917 -0.3175134 0.15344396 -0.06713702 0.22891937 0.23106132 -0.19527645 -0.053943727 -0.024111278 -0.32521442 -0.26919135 0.16040798 0.010037048 0.19984367 -0.16469622 -0.2803975 -0.0006178799 0.17855072 0.28395864 -0.195654 -0.3448849 -0.032043666 0.09511807 -0.071152285 -0.29523265 -0.29773626 -0.09529865 -0.3434439 -0.12063612 0.021775842 -0.03310253 0.007923499 -0.05754034 0.15012088 -0.047307078 0.26902723 0.35109684 0.17054223 -0.05950977 0.12524132 0.0231375 -0.027533425 0.24892125 0.1461392 0.1831451 -0.13940595 0.07467065 -0.015911037 -0.12288829 -0.27788958 -0.17558505 -0.14326404 0.161544 0.15514636 -0.10655657 0.45580792 0.039811097 0.27503294 -0.008921117 -0.16856895 0.16390674 -0.20476632 0.13037564 -0.11487401 0.087326184 -0.29850554 0.014633825 0.08819219 0.2845263 0.05297228 0.13348304 -0.04733337 0.081027225 -0.2881371 0.069977604 0.15700677 -0.25203526 0.03472814 0.13992803 0.09545604 0.114869185 -0.16074206 0.39797568 -0.04840447 0.41140243 -0.3332384 -0.056777354 0.07019157 0.01045754 -0.01818404 -0.045517284 0.037939 0.18439403 -0.19899368 -0.039708897 0.08575141 0.13914801 -0.043033995 -0.060263593 -0.17978992 0.22329149 0.0029588593 0.20537116 0.28817624 0.102873094 0.22671509 0.1376064 0.11971869 0.10582405 -0.2826372 0.24890901 -0.2475779 -0.15669718 -0.07643579 0.24712297 0.1318036 -0.1987252 0.17009524 0.0076030004 0.114283524 0.108627036 0.085701644 -0.11402862 -0.4163825 -0.06171438 -0.13605246 -0.007726128 0.23940727 -0.1098056 0.03298494 0.28932315 -0.32302272 -0.066678025 0.10228761 0.028868765 -0.092761755 -0.09187513 0.01888562 0.1279647 0.006124955 -0.26730335 0.00783333 0.06065177 0.3511355 -0.099874236 0.16040942 0.22153696 0.068630524 -0.08569346 -0.18293078 0.1099017 0.24649785 -0.40867034 -0.08470879 -0.23024113 0.14940202 0.0068853665 -0.014451693 -0.14097095 0.19038285 -0.21389441 0.05101671 -0.09483603 0.016163798 -0.36769244 -0.12003724 0.1730619 -0.097573794 -0.1335438 0.009118084 0.017871423 0.03492343 0.20480019 -0.05712712 0.036977082 0.009278898 0.020377077 -0.14825577 -0.18071704 -0.12772061 -0.02653475 0.031482868 0.19274294 -0.054365307 0.0051175826 -0.25770918 0.046784632 0.22258933 -0.2888761 0.09280621 0.049847864 -0.17601421 -0.21016568 -0.30780688 -0.16717784 0.11747204 0.035748865 -0.09588572 0.10254351 -0.055248763 -0.16152552 -0.14025153 -0.27006754 0.21744737 0.13779572 0.28837967 -0.11293142 0.1779051 -0.10452764 -0.17644884 0.048260726 0.16996658 -0.04710184 -0.11942428 -0.28212222 0.049842473 -0.14830026 -0.094820365 0.44297796 -0.059485745 0.22829276 -0.05806739 0.3632912 -0.10932694 0.014029682 -0.057313703 0.10844842 -0.04631177 -0.10999456 0.17878164 0.038781878 -0.0048523312 -0.24180442 -0.2610246 0.12157866 -0.18682761 0.19011782 -0.06788667 -0.041892566 0.22041649 0.38872376 -0.29834035 0.19519712 0.054506235 -0.077342264 0.14468935 0.4630539 -0.16121425 -0.25284898 -0.11455598 0.23793247 0.133005 0.24119407 -0.08928809 -0.076017685 0.43441603 0.12468332 0.009674281 -0.09482457 0.11782571 -0.15028518 0.21447356 0.16221514 0.1218034 -0.049082864 -0.058402114 0.24912606 -0.13072936 -0.15033828 -0.11839834 -0.454261 -0.4212896 -0.001174244 0.101278566 -0.099531874 -0.036623392 -0.015202807 -0.022152746
state 0.41181108 0.37010852 0.3349414 -0.2230644 -0.003760752 0.22581965 -0.3224212 0.10529618 0.16032477 0.11985761 0.025866862 -0.21251377 0.4471343 0.17237002 0.257591 -0.07433942 0.08328287 -0.1272303 -0.19842955 -0.13481577 0.33430445 -0.2013634 0.024130948 -0.37961322 0.11272768 0.080993496 0.20064902 -0.36781597 -0.26920295 -0.08150393 0.1864485 -0.38402286 -0.07027207 0.12423157 -0.05378991 0.3587263 0.025788823 -0.08861979 0.25133517 0.14003496 0.097764455 -0.08686009 -0.30503836 -0.115699634 0.020416118 -0.13673964 -0.23978291 -0.30483067 -0.07354185 -0.26834053 0.00409933 0.07769668 -0.040582266 -0.28933045 -0.19061823 0.21333136 0.13358691 0.3719636 0.4249596 0.3291777 0.054253556 0.20074204 -0.015785065 -0.23541535 0.15169714 0.19464408 -0.021438789 -0.1362904 0.14006776 -0.024501596 -0.36695167 -0.14846408 -0.28730333 -0.19857928 0.15869331 0.007969959 0.3844443 0.4125971 0.04541988 0.10134384 -0.11964666 -0.1021524 0.23631856 -0.24437523 0.30292693 0.072501175 -0.13739768 -0.15223272 0.05737043 0.11936209 0.11370254 -0.16628277 0.17953257 -0.20462394 -0.20057347 -0.057793424 -0.26900393 -0.058708683 -0.15926212 0.15813613 0.09841949 0.06327427 0.39567694 -0.3757559 0.5766205 0.06068821 0.112860434 -0.2057857 -0.10593896 -0.22519702 -0.099824056 -0.12637372 -0.04739422 0.21531408 0.27748492 -0.12020949 0.04785562 -0.02664652 0.04475073 0.09619229 -0.24371038 -0.019491997 0.23447278 0.0092718005 0.110348135 0.13422209 0.11021706 0.39156622 -0.19584288 0.064552076 0.2541769 -0.21127427 0.2860676 -0.115224205 -0.1005299 0.028330225 0.010538965 0.13585837 -0.08667788 0.08742228 -0.018835796 -0.18898866 0.26648924 0.24725597 -0.14198296 -0.31156623 -0.052283414 -0.3405774 0.056007743 0.17976442 -0.16292968 -0.030069046 -0.15081742 -0.1602495 -0.020449331 -0.2126882 -0.03544565 -0.30172554 -0.043795764 -0.2569666 0.08308075 -0.059745375 -0.20634374 0.13937716 0.11679325 0.036969483 0.035223294 0.1251271 0.28795233 0.064548425 0.0038990115 -0.4754016 0.34129846 0.03996428 -0.3565153 -0.22989732 -0.07537111 0.20845442 -0.06549088 -0.014036844 -0.2144683 0.08732587 -0.13509056 -0.042970654 0.10416082 -0.2716387 -0.17932607 -0.044702668 0.24965924 -0.16443981 -0.32314926 -0.0986907 0.14829992 -0.013883141 -0.20577213 0.019759353 -0.056399837 0.25846392 0.022773886 -0.12016891 -0.19898596 -0.08351131 -0.02894273 0.2148834 0.08648663 0.10353217 -0.19972211 0.019408872 0.042369895 -0.1628641 -0.2732465 -0.07499326 -0.30884093 0.17526235 -0.15667737 -0.23919255 -0.11236447 0.026806235 -0.08797863 -0.2751008 0.30056944 -0.21917081 0.0029560453 -0.18918449 -0.23453267 0.07882543 -0.05656342 0.231627 0.38089395 0.25048262 0.052595284 -0.019064661 -0.05157155 -0.020034099 0.02625337 -0.03817412 -0.2682099 -0.013081558 -0.019348241 -0.08829359 0.43425575 -0.16193654 0.32590514 0.124105595 0.14106889 -0.12915355 -0.07363325 -0.20031166 0.2823007 -0.2067612 -0.1552215 0.06321365 -0.25463063 -0.06765879 -0.3710559 -0.08967874 -0.033590946 -0.08078408 0.29888877 -0.0389307 -0.038016282 0.17651145 0.3554386 -0.050337296 0.17098926 -0.11528033 -0.090491265 0.15779689 0.5112614 -0.033706866 -0.24476436 0.09925402 0.15126851 0.04163949 0.17980981 0.1437155 -0.15934436 0.37808985 -0.13128407 -0.1142055 -0.20998916 0.15779209 0.103387386 0.27302155 0.022712452 0.1327212 0.18359703 -0.24649124 0.0063849823 -0.14760505 -0.09411077 0.1757625 -0.31358182 -0.4289262 0.078343235 -0.03242889 -0.01620932 -0.1147999 0.050635222 0.12391661
